3.137181224262240331e+00
1.900554805698584815e+00
4.870128253840329435e+00
-1.137405622687008289e-01
-1.612685137526628787e-01
-2.258183301199365278e+00
6.606302027933144139e+00
8.154543559718896439e-01
3.687105390205396738e+00
-1.397335980950885848e+00
6.726176071586285055e+00
-2.131852907712304734e+00
2.131322109822810340e+00
1.016716887537128938e-01
-3.463106281046389068e+00
5.671524521165319577e+00
3.789300044622288421e+00
7.145123295224997229e+00
7.201769637751048947e+00
-3.374764371714792599e+00
1.846398374322244518e+00
1.654373154343053542e+00
-2.171820120321110714e-01
7.839929541868068119e-01
6.066024905193201811e+00
-2.042622014441992206e+00
6.771975799456116718e+00
6.786087144289078665e+00
1.051285055648775391e+01
-7.579421908561838617e-01
-1.072007213890475846e-01
1.870062188922192670e+00
6.889498307829418522e+00
2.191825897590144456e-01
6.444236184800787193e+00
6.451114566029702679e+00
-1.365980430738392704e+00
8.660963644855108889e-02
2.797462385519586814e-01
5.464201253138304182e+00
5.427533693722209840e+00
6.693628954908481532e+00
7.383291985246189348e+00
-3.118180301031786339e+00
3.573693015732641864e+00
-1.935929534998320767e+00
4.864578428753286055e+00
6.847365020064015262e+00
2.044645809548643611e-01
2.101285900693691477e+00
-2.188893609207696322e-01
-2.497940587937875989e+00
-1.842087943860765575e+00
-2.338816130063304577e+00
4.140171770557490305e+00
-1.857622084018414776e+00
4.626620104841410175e+00
-2.081398650501433245e+00
4.614358713524084443e+00
5.779716085616156462e+00
1.705929330788763076e+00
-8.460293711363477132e-02
1.467960602640176582e+00
7.380790660407087422e+00
-2.342337613583485911e+00
-1.244787665982634989e-01
4.910520993581815041e+00
4.899841516439823463e-02
3.908662793355589749e+00
2.424925948746631477e+00
6.572764444952873930e+00
6.722791401650367149e+00
-3.311712903853335221e-02
4.961253965864509397e+00
1.004955441063545285e+00
4.579730929109520510e+00
1.607043759146954409e-01
1.194612493794082297e+01
7.196541654081236139e+00
6.656285334111201379e+00
2.340852899069227444e+00
6.023448157085169008e+00
6.735413043068721350e+00
6.929678259043941857e+00
5.952377412138617707e+00
6.097413479359796717e+00
3.759387358625696507e+00
5.260355108765506493e+00
2.153847694685706582e+00
2.127691526234879227e+00
1.709571565409471194e+00
2.151466329614621475e+00
7.099908510725405186e+00
1.350384373232780266e-01
4.997925487120579824e+00
7.414655525447499507e+00
1.296249749722361289e+00
7.901200048651486896e-02
-2.238100001939820893e-01
1.050148496199944104e+00
