-4.054172655758184196e-01
3.585925225209940947e+00
-3.355334210218843261e-01
-7.194614739825688332e+00
3.998153429817801641e+00
2.823924241947780800e+00
2.617435748669631135e+00
4.086504213215699899e+00
3.774838232014921413e+00
-1.340772596573635289e-01
-2.419092541283563713e-01
-2.175766735270530938e-01
-4.472984974354995980e-01
1.543371035311209338e+00
-5.701185399224524553e-02
2.768996576980200075e+00
3.612046139654765398e+00
1.754348895130904751e+00
-3.027894388795837610e-01
-5.727802005448288103e-01
3.924764545959406714e+00
4.034662201128170089e+00
3.189164696533736354e+00
2.972974367266610685e+00
4.060502408248646944e+00
-2.834535862601423872e-01
-4.908516164282713534e-01
-5.554961943734872953e-01
4.303002084415836315e+00
-7.299397780874436137e+00
4.130772240348877133e+00
4.277867660593110521e+00
-2.965553926938504503e-01
4.105022938230004748e+00
4.295876911805725840e+00
-6.445916313923572005e-02
4.318961719471748673e+00
3.013687648257911134e-01
3.599379102884597614e+00
2.717498643364648636e+00
-5.053149686636141391e-01
2.982757797774906017e+00
5.254567336123849852e-02
3.974006296237437841e+00
-1.045233748697914217e-01
3.648171664406840264e+00
4.052437697716814391e+00
-2.185743279359355640e-01
3.818721951386087277e+00
-7.258940418937258165e+00
-5.012115904034410985e-01
-7.213512540843461274e+00
2.973925691075234745e+00
3.860989367161026475e+00
-2.477803356113097155e-01
4.044132998988527739e+00
-4.857890359390662494e-01
3.592340590914253617e+00
3.006499664822196660e+00
-5.726922413497350650e-01
4.077933112097610113e+00
-1.787507162830346830e-01
1.820966360123794869e+00
4.071449953249225651e+00
4.146182218378217321e+00
4.092090658703267714e+00
4.329398533094162005e+00
4.135677515305490104e+00
-6.308130665967619510e-01
-1.338272186691102372e-01
2.555917317669771816e+00
4.056733596652446039e+00
4.334189215955454699e+00
2.729631519014178664e+00
2.894665555422885284e+00
1.558260955121234970e+00
-5.426872105144198599e+00
3.844601627366345031e+00
3.707295057782382663e+00
-1.747327915398973197e-01
3.808935830970960890e+00
4.137508482049047309e+00
-3.424273535254502843e-01
-4.769285666065059548e-01
-2.830460801096891243e-01
4.119587358332925220e+00
4.147588859735768629e+00
4.110594955492923752e+00
-2.238929082003051629e-01
-1.603660404453378652e-01
3.665813836208480225e+00
-5.832345291974260215e-01
4.090068370509395201e+00
3.459363630397056077e+00
2.323922834321960895e+00
-7.266197389394193351e+00
-4.800789631563864290e-01
4.304682959482431848e+00
-7.185303539787144977e+00
3.933684711709172888e+00
