-1.662076192431264504e-02
3.540467119143206887e-01
9.488623429430288747e-02
2.115363056717620982e-01
-3.110653590170584515e-01
1.581067191157078389e-01
-2.762076708769208300e-01
7.361745177902022375e-02
-2.101293818087573428e-01
4.248079772852088598e-01
3.440535570495847351e-01
6.673760283601806731e-02
9.852096837124213469e-02
1.248948179248740437e-01
3.870233721199465848e-01
-3.056011080375006239e-01
-1.073935911798443697e-04
6.257886112162620168e-03
1.063516446322536751e-01
-2.982612171753923694e-02
9.977109311391588187e-02
4.924727882432736736e-01
1.123753810468283987e-01
4.676557302042704256e-01
1.171341698881238347e-01
1.211100912522931339e-01
3.295014177328458582e-01
1.340852581048970205e-01
-1.739119929738872916e-01
9.865178310159467001e-02
2.575405267536949316e-01
1.217029097326202680e-01
9.410139909410659975e-02
-1.335180456142139593e-01
2.990161440624512779e-02
1.151410466331932031e-01
2.530695014556901268e-01
3.133541751663666552e-01
-5.880531093035818585e-02
1.087804000415354827e-01
-1.533417852251510172e-01
2.389069053010080546e-01
2.813239590792342426e-01
-1.119095237963844552e-01
3.795134617187983506e-01
4.600989872130849534e-01
2.101444542991378894e-01
3.864921089302399970e-01
1.230569758121111829e-01
6.021399105424329184e-02
-1.207932265639343195e-01
1.651292461131967926e-01
1.917070839717738839e-01
2.602116887405706569e-01
-2.455603645205077235e-01
7.069543541005023947e-03
9.948164436305780012e-02
3.768137957878942013e-02
-4.705931616871216611e-02
-4.134606955754861479e-01
5.393801341215963552e-01
-2.358662364751103746e-01
-2.163666485938985778e-02
1.131840301620536532e-01
-3.311868687018986596e-02
5.312366405534700853e-01
-1.165575652053334049e-01
4.902744609757410110e-01
-1.592219851754652022e-03
2.461468522088878785e-01
3.393549950917665314e-02
-2.057650265007974211e-01
2.903867188568196589e-01
-1.731195850721184426e-01
9.091077586711182601e-02
4.645986199087929341e-02
2.478263285016935880e-01
9.831910191509420083e-02
6.635740254071692545e-02
2.611297629752932781e-01
2.840157076925853286e-01
-1.183736933643136369e-01
7.425386621380407337e-02
-1.004815882640215791e-01
2.516919602624637098e-01
-1.368611941274644195e-01
9.840868625159618355e-02
1.000655616548443150e-01
-4.005690906683736507e-01
3.587439325414564784e-01
1.075208771798535495e-01
3.370564089672909991e-01
5.287772078652346330e-01
1.566321664986741302e+00
2.469232018237742243e-01
2.689470218555994330e-01
-2.722641893744753294e-01
1.926079946468672033e-01
-8.456549265276887273e-02
2.809753424440452063e-01
