3.141525511553955874e-01
4.018373489311398927e+00
2.661789959120739013e+00
-2.689880421345412387e+00
-1.244595333044366647e+00
-1.227524112229422260e+00
5.570194357969208143e-01
2.874672596003613911e+00
-2.118974864261295554e+00
-1.890028357834528716e+00
-1.908248275140989048e+00
1.355501227792249130e+00
1.790988748558983712e-01
-3.511740538269835010e+00
-1.958438202203834022e+00
-2.093396403844144160e+00
4.936267783571979706e+00
-1.882341985460286526e+00
6.554078730034792466e-01
2.017419810810425318e+00
-4.918217354739996772e+00
1.929256613465727965e-01
-1.744751436892550411e-01
1.759672072258500197e+00
3.171335909386358676e+00
-1.480278680518898859e+01
1.877585753236536092e+00
1.666320420064820951e+00
-1.166604451847645940e+00
-2.154308146432963422e+00
-1.428898798072930076e-01
1.396097890371873707e+00
-1.744858321640494925e+00
-2.656116303379607135e+00
6.098962848785975943e-01
-1.582188262586904148e+00
-1.382106089114787828e+00
2.164610536295794585e+00
3.274868834017399255e-01
1.088076042200273763e+00
1.720248327552337531e-01
3.204439880920564865e-01
1.956605479384752044e+00
-3.866917399092758001e-01
1.437496892476076926e+00
3.387771686214458566e-01
2.921481629037021022e-01
3.170016530627294493e+00
-4.296808427024796373e-01
2.839834889383610506e+00
3.571266984245026421e+00
1.518015634032148675e+00
1.888017215858304620e+00
1.148037129308264070e+00
2.848426889765294234e-01
1.752790635148436527e-01
1.854372262309868402e+00
-7.434362451184617804e+00
5.403568369813996908e-01
-1.810983126487095030e+00
2.385938642587589198e-01
1.836946350954527851e+00
3.209175411460586380e-01
-2.098544105376330737e+00
1.358686325494160296e-01
-1.956775791534271169e+00
-2.372657734004570251e+00
-1.117487938782546930e+00
1.453117455180842343e-01
-3.045472393078688000e+00
-1.924096341669845056e-01
1.403715176262742559e-01
-6.203801331908994632e-01
-3.628292095668689043e+00
2.105604064195298886e+00
-4.068588182041105838e+00
2.134450741824056141e+00
5.297567356650558779e+00
-1.218530761660806538e+00
3.593249781644536345e-01
-1.684427865256373114e+00
-3.122892593014505280e+00
1.730666231513980469e+00
1.013768137367110134e+00
-5.583966642939507397e-01
3.194685402772650118e-01
-2.046096680113812294e+00
-6.581210115930660742e-02
2.861725706095648469e+00
1.800326578823594925e+00
1.941770402032028775e+00
-1.247620133739046205e-01
-2.968076743026545894e-02
3.614119017402673606e+00
-1.604181157603402075e-01
1.788676700255145968e-01
-6.031153255302844629e-01
-4.153348226639341334e+00
-3.771847808795302653e-02
-5.309731544237846629e-02
